\data\
ngram 1=54
ngram 2=430
ngram 3=2520

\1-grams:
-2.4885125	<unk>	0
0	<s>	-3.7403495
-2.0428243	</s>	0
-2.3555782	bin	-0.30103
-2.0428243	blue	-0.42596874
-2.0428243	at	-0.42596874
-2.0428243	f	-0.42596874
-1.237335	two	-1.2218487
-1.6379988	now	-0.8239087
-1.237335	three	-1.2218487
-1.6379988	soon	-0.8239087
-1.237335	four	-1.2218487
-1.6379988	please	-0.8239087
-1.237335	five	-1.2218487
-1.6379988	again	-0.8239087
-2.0428243	l	-0.42596874
-1.237335	six	-1.2218487
-1.237335	seven	-1.2218487
-1.237335	eight	-1.2218487
-1.237335	nine	-1.2218487
-2.0428243	s	-0.42596874
-1.237335	one	-1.2218487
-1.237335	zero	-1.2218487
-2.0428243	z	-0.42596874
-2.0428243	by	-0.42596874
-2.0428243	m	-0.42596874
-2.0428243	in	-0.42596874
-2.0428243	e	-0.42596874
-2.0428243	r	-0.42596874
-2.0428243	with	-0.42596874
-2.0428243	g	-0.42596874
-2.0428243	t	-0.42596874
-2.0428243	green	-0.42596874
-2.0428243	a	-0.42596874
-2.0428243	h	-0.42596874
-2.0428243	n	-0.42596874
-2.0428243	u	-0.42596874
-2.0428243	b	-0.42596874
-2.0428243	o	-0.42596874
-2.0428243	i	-0.42596874
-2.0428243	red	-0.42596874
-2.0428243	white	-0.42596874
-2.3555782	lay	-0.30103
-2.0428243	d	-0.42596874
-2.0428243	k	-0.42596874
-2.0428243	q	-0.42596874
-2.0428243	x	-0.42596874
-2.0428243	y	-0.42596874
-2.0428243	j	-0.42596874
-2.3555782	place	-0.30103
-2.0428243	c	-0.42596874
-2.0428243	p	-0.42596874
-2.0428243	v	-0.42596874
-2.3555782	set	-0.30103

\2-grams:
-0.06988717	now </s>	0
-0.06988717	soon </s>	0
-0.06988717	please </s>	0
-0.06988717	again </s>	0
-0.604659	<s> bin	-3.1357684
-0.88762796	bin blue	-2.541995
-0.88762796	lay blue	-2.5459254
-0.88762796	place blue	-2.5284882
-0.88762796	set blue	-2.5280592
-0.79683685	blue at	-1.7413092
-0.79683685	green at	-1.7413092
-0.79683685	red at	-1.7387806
-0.79683685	white at	-1.741099
-1.5467142	at f	-1.3528254
-1.5467142	by f	-1.3450468
-1.5467142	in f	-1.3397826
-1.5467142	with f	-1.3317646
-1.0746269	f two	-1.3424227
-1.0746269	l two	-1.3424227
-1.0746269	s two	-1.3424227
-1.0746269	z two	-1.3424227
-1.0746269	m two	-1.3424227
-1.0746269	e two	-1.3424227
-1.0746269	r two	-1.3424227
-1.0746269	g two	-1.3424227
-1.0746269	t two	-1.3424227
-1.0746269	a two	-1.3424227
-1.0746269	h two	-1.3424227
-1.0746269	n two	-1.3424227
-1.0746269	u two	-1.3424227
-1.0746269	b two	-1.3424227
-1.0746269	o two	-1.3424227
-1.0746269	i two	-1.3424227
-1.0746269	d two	-1.3424227
-1.0746269	k two	-1.3424227
-1.0746269	q two	-1.3424227
-1.0746269	x two	-1.3424227
-1.0746269	y two	-1.3424227
-1.0746269	j two	-1.3424227
-1.0746269	c two	-1.3424227
-1.0746269	p two	-1.3424227
-1.0746269	v two	-1.3424227
-0.62638766	two now	-2.7533276
-0.62638766	three now	-2.7269988
-0.62638766	four now	-2.7533276
-0.62638766	five now	-2.7269988
-0.62638766	six now	-2.7533276
-0.62638766	seven now	-2.7269988
-0.62638766	eight now	-2.7533276
-0.62638766	nine now	-2.7269988
-0.62638766	one now	-2.7269988
-0.62638766	zero now	-2.7533276
-1.0746269	f three	-1.3424227
-1.0746269	l three	-1.3424227
-1.0746269	s three	-1.3424227
-1.0746269	z three	-1.3424227
-1.0746269	m three	-1.3424227
-1.0746269	e three	-1.3424227
-1.0746269	r three	-1.3424227
-1.0746269	g three	-1.3424227
-1.0746269	t three	-1.3424227
-1.0746269	a three	-1.3424227
-1.0746269	h three	-1.3424227
-1.0746269	n three	-1.3424227
-1.0746269	u three	-1.3424227
-1.0746269	b three	-1.3424227
-1.0746269	o three	-1.3424227
-1.0746269	i three	-1.3424227
-1.0746269	d three	-1.3424227
-1.0746269	k three	-1.3424227
-1.0746269	q three	-1.3424227
-1.0746269	x three	-1.3424227
-1.0746269	y three	-1.3424227
-1.0746269	j three	-1.3424227
-1.0746269	c three	-1.3424227
-1.0746269	p three	-1.3424227
-1.0746269	v three	-1.3424227
-0.62638766	two soon	-2.7269988
-0.62638766	three soon	-2.7533276
-0.62638766	four soon	-2.7269988
-0.62638766	five soon	-2.7533276
-0.62638766	six soon	-2.7269988
-0.62638766	seven soon	-2.7533276
-0.62638766	eight soon	-2.7269988
-0.62638766	nine soon	-2.7533276
-0.62638766	one soon	-2.7533276
-0.62638766	zero soon	-2.7269988
-1.0746269	f four	-1.3424227
-1.0746269	l four	-1.3424227
-1.0746269	s four	-1.3424227
-1.0746269	z four	-1.3424227
-1.0746269	m four	-1.3424227
-1.0746269	e four	-1.3424227
-1.0746269	r four	-1.3424227
-1.0746269	g four	-1.3424227
-1.0746269	t four	-1.3424227
-1.0746269	a four	-1.3424227
-1.0746269	h four	-1.3424227
-1.0746269	n four	-1.3424227
-1.0746269	u four	-1.3424227
-1.0746269	b four	-1.3424227
-1.0746269	o four	-1.3424227
-1.0746269	i four	-1.3424227
-1.0746269	d four	-1.3424227
-1.0746269	k four	-1.3424227
-1.0746269	q four	-1.3424227
-1.0746269	x four	-1.3424227
-1.0746269	y four	-1.3424227
-1.0746269	j four	-1.3424227
-1.0746269	c four	-1.3424227
-1.0746269	p four	-1.3424227
-1.0746269	v four	-1.3424227
-0.62638766	two please	-2.7533276
-0.62638766	three please	-2.7269988
-0.62638766	four please	-2.7533276
-0.62638766	five please	-2.7269988
-0.62638766	six please	-2.7533276
-0.62638766	seven please	-2.7269988
-0.62638766	eight please	-2.7533276
-0.62638766	nine please	-2.7269988
-0.62638766	one please	-2.7269988
-0.62638766	zero please	-2.7528164
-1.0746269	f five	-1.3424227
-1.0746269	l five	-1.3424227
-1.0746269	s five	-1.3424227
-1.0746269	z five	-1.3424227
-1.0746269	m five	-1.3424227
-1.0746269	e five	-1.3424227
-1.0746269	r five	-1.3424227
-1.0746269	g five	-1.3424227
-1.0746269	t five	-1.3424227
-1.0746269	a five	-1.3424227
-1.0746269	h five	-1.3424227
-1.0746269	n five	-1.3424227
-1.0746269	u five	-1.3424227
-1.0746269	b five	-1.3424227
-1.0746269	o five	-1.3424227
-1.0746269	i five	-1.3424227
-1.0746269	d five	-1.3424227
-1.0746269	k five	-1.3424227
-1.0746269	q five	-1.3424227
-1.0746269	x five	-1.3424227
-1.0746269	y five	-1.3424227
-1.0746269	j five	-1.3424227
-1.0746269	c five	-1.3424227
-1.0746269	p five	-1.3424227
-1.0746269	v five	-1.3424227
-0.62638766	two again	-2.7269988
-0.62638766	three again	-2.7533276
-0.62638766	four again	-2.7269988
-0.62638766	five again	-2.7533276
-0.62638766	six again	-2.7264555
-0.62638766	seven again	-2.7533276
-0.62638766	eight again	-2.7269988
-0.62638766	nine again	-2.7533276
-0.62638766	one again	-2.7533276
-0.62638766	zero again	-2.7269988
-1.5467142	at l	-1.3450468
-1.5467142	by l	-1.3317646
-1.5467142	in l	-1.3528254
-1.5467142	with l	-1.3397826
-1.0746269	f six	-1.3424227
-1.0746269	l six	-1.3424227
-1.0746269	s six	-1.3424227
-1.0746269	z six	-1.3424227
-1.0746269	m six	-1.3424227
-1.0746269	e six	-1.3424227
-1.0746269	r six	-1.33912
-1.0746269	g six	-1.3424227
-1.0746269	t six	-1.3424227
-1.0746269	a six	-1.3424227
-1.0746269	h six	-1.3424227
-1.0746269	n six	-1.3424227
-1.0746269	u six	-1.3424227
-1.0746269	b six	-1.3424227
-1.0746269	o six	-1.3424227
-1.0746269	i six	-1.3424227
-1.0746269	d six	-1.3424227
-1.0746269	k six	-1.3424227
-1.0746269	q six	-1.3424227
-1.0746269	x six	-1.3424227
-1.0746269	y six	-1.3424227
-1.0746269	j six	-1.3424227
-1.0746269	c six	-1.3424227
-1.0746269	p six	-1.3424227
-1.0746269	v six	-1.3424227
-1.0746269	f seven	-1.3424227
-1.0746269	l seven	-1.3424227
-1.0746269	s seven	-1.3424227
-1.0746269	z seven	-1.3424227
-1.0746269	m seven	-1.3424227
-1.0746269	e seven	-1.3424227
-1.0746269	r seven	-1.3424227
-1.0746269	g seven	-1.3424227
-1.0746269	t seven	-1.3424227
-1.0746269	a seven	-1.3424227
-1.0746269	h seven	-1.3424227
-1.0746269	n seven	-1.3424227
-1.0746269	u seven	-1.3424227
-1.0746269	b seven	-1.3424227
-1.0746269	o seven	-1.3424227
-1.0746269	i seven	-1.3424227
-1.0746269	d seven	-1.3424227
-1.0746269	k seven	-1.3424227
-1.0746269	q seven	-1.3424227
-1.0746269	x seven	-1.3424227
-1.0746269	y seven	-1.3424227
-1.0746269	j seven	-1.3424227
-1.0746269	c seven	-1.3424227
-1.0746269	p seven	-1.3424227
-1.0746269	v seven	-1.3424227
-1.0746269	f eight	-1.3424227
-1.0746269	l eight	-1.3424227
-1.0746269	s eight	-1.3424227
-1.0746269	z eight	-1.3424227
-1.0746269	m eight	-1.3424227
-1.0746269	e eight	-1.3424227
-1.0746269	r eight	-1.3424227
-1.0746269	g eight	-1.3424227
-1.0746269	t eight	-1.3424227
-1.0746269	a eight	-1.3424227
-1.0746269	h eight	-1.3424227
-1.0746269	n eight	-1.3424227
-1.0746269	u eight	-1.3424227
-1.0746269	b eight	-1.3424227
-1.0746269	o eight	-1.3424227
-1.0746269	i eight	-1.3424227
-1.0746269	d eight	-1.3424227
-1.0746269	k eight	-1.3424227
-1.0746269	q eight	-1.3424227
-1.0746269	x eight	-1.3424227
-1.0746269	y eight	-1.3424227
-1.0746269	j eight	-1.3424227
-1.0746269	c eight	-1.3424227
-1.0746269	p eight	-1.3424227
-1.0746269	v eight	-1.3424227
-1.0746269	f nine	-1.3424227
-1.0746269	l nine	-1.3424227
-1.0746269	s nine	-1.3424227
-1.0746269	z nine	-1.3424227
-1.0746269	m nine	-1.3424227
-1.0746269	e nine	-1.3424227
-1.0746269	r nine	-1.3424227
-1.0746269	g nine	-1.3424227
-1.0746269	t nine	-1.3424227
-1.0746269	a nine	-1.3424227
-1.0746269	h nine	-1.3424227
-1.0746269	n nine	-1.3424227
-1.0746269	u nine	-1.3424227
-1.0746269	b nine	-1.3424227
-1.0746269	o nine	-1.3424227
-1.0746269	i nine	-1.3424227
-1.0746269	d nine	-1.3424227
-1.0746269	k nine	-1.3424227
-1.0746269	q nine	-1.3424227
-1.0746269	x nine	-1.3424227
-1.0746269	y nine	-1.3424227
-1.0746269	j nine	-1.3424227
-1.0746269	c nine	-1.3424227
-1.0746269	p nine	-1.3424227
-1.0746269	v nine	-1.3424227
-1.5467142	at s	-1.350248
-1.5467142	by s	-1.350248
-1.5467142	in s	-1.3344538
-1.5467142	with s	-1.3344538
-1.0746269	f one	-1.3424227
-1.0746269	l one	-1.3424227
-1.0746269	s one	-1.3424227
-1.0746269	z one	-1.3424227
-1.0746269	m one	-1.3424227
-1.0746269	e one	-1.3424227
-1.0746269	r one	-1.3424227
-1.0746269	g one	-1.3424227
-1.0746269	t one	-1.3424227
-1.0746269	a one	-1.3424227
-1.0746269	h one	-1.3424227
-1.0746269	n one	-1.3424227
-1.0746269	u one	-1.3424227
-1.0746269	b one	-1.3424227
-1.0746269	o one	-1.3424227
-1.0746269	i one	-1.3424227
-1.0746269	d one	-1.3424227
-1.0746269	k one	-1.3424227
-1.0746269	q one	-1.3424227
-1.0746269	x one	-1.3424227
-1.0746269	y one	-1.3424227
-1.0746269	j one	-1.3424227
-1.0746269	c one	-1.3424227
-1.0746269	p one	-1.3424227
-1.0746269	v one	-1.3424227
-1.0746269	f zero	-1.3424227
-1.0746269	l zero	-1.3424227
-1.0746269	s zero	-1.3424227
-1.0746269	z zero	-1.3424227
-1.0746269	m zero	-1.3424227
-1.0746269	e zero	-1.3424227
-1.0746269	r zero	-1.3424227
-1.0746269	g zero	-1.3424227
-1.0746269	t zero	-1.3424227
-1.0746269	a zero	-1.3424227
-1.0746269	h zero	-1.3424227
-1.0746269	n zero	-1.3424227
-1.0746269	u zero	-1.3424227
-1.0746269	b zero	-1.3424227
-1.0746269	o zero	-1.3424227
-1.0746269	i zero	-1.3424227
-1.0746269	d zero	-1.3424227
-1.0746269	k zero	-1.3424227
-1.0746269	q zero	-1.3424227
-1.0746269	x zero	-1.3424227
-1.0746269	y zero	-1.3424227
-1.0746269	j zero	-1.3424227
-1.0746269	c zero	-1.3424227
-1.0746269	p zero	-1.3424227
-1.0746269	v zero	-1.3424227
-1.5467142	at z	-1.350248
-1.5467142	by z	-1.3344538
-1.5467142	in z	-1.350248
-1.5467142	with z	-1.3344538
-0.79683685	blue by	-1.7402574
-0.79683685	green by	-1.7387806
-0.79683685	red by	-1.7396251
-0.79683685	white by	-1.7415193
-1.5467142	at m	-1.3344538
-1.5467142	by m	-1.350248
-1.5467142	in m	-1.3344538
-1.5467142	with m	-1.350248
-0.79683685	blue in	-1.741099
-0.79683685	green in	-1.7417293
-0.79683685	red in	-1.7413092
-0.79683685	white in	-1.7385691
-1.5467142	at e	-1.3344538
-1.5467142	by e	-1.350248
-1.5467142	in e	-1.3344538
-1.5467142	with e	-1.350248
-1.5467142	at r	-1.3304138
-1.5467142	by r	-1.3397826
-1.5467142	in r	-1.3450468
-1.5467142	with r	-1.3528254
-0.79683685	blue with	-1.7385691
-0.79683685	green with	-1.7396251
-0.79683685	red with	-1.7417293
-0.79683685	white with	-1.7402574
-1.5467142	at g	-1.3344538
-1.5467142	by g	-1.3344538
-1.5467142	in g	-1.350248
-1.5467142	with g	-1.350248
-1.5467142	at t	-1.3450468
-1.5467142	by t	-1.3317646
-1.5467142	in t	-1.3528254
-1.5467142	with t	-1.3397826
-0.88762796	bin green	-2.5284882
-0.88762796	lay green	-2.5397031
-0.88762796	place green	-2.5465426
-0.88762796	set green	-2.5299861
-1.5467142	at a	-1.350248
-1.5467142	by a	-1.3344538
-1.5467142	in a	-1.350248
-1.5467142	with a	-1.3344538
-1.5467142	at h	-1.3397826
-1.5467142	by h	-1.3528254
-1.5467142	in h	-1.3317646
-1.5467142	with h	-1.3450468
-1.5467142	at n	-1.3528254
-1.5467142	by n	-1.3450468
-1.5467142	in n	-1.3397826
-1.5467142	with n	-1.3317646
-1.5467142	at u	-1.3344538
-1.5467142	by u	-1.350248
-1.5467142	in u	-1.3344538
-1.5467142	with u	-1.350248
-1.5467142	at b	-1.3317646
-1.5467142	by b	-1.3397826
-1.5467142	in b	-1.3450468
-1.5467142	with b	-1.3528254
-1.5467142	at o	-1.3344538
-1.5467142	by o	-1.3344538
-1.5467142	in o	-1.350248
-1.5467142	with o	-1.350248
-1.5467142	at i	-1.350248
-1.5467142	by i	-1.3344538
-1.5467142	in i	-1.350248
-1.5467142	with i	-1.3344538
-0.88762796	bin red	-2.535294
-0.88762796	lay red	-2.5465426
-0.88762796	place red	-2.5346606
-0.88762796	set red	-2.5282738
-0.88762796	bin white	-2.5289166
-0.88762796	lay white	-2.5459254
-0.88762796	place white	-2.5422027
-0.88762796	set white	-2.5276299
-0.5938326	<s> lay	-3.146593
-1.5467142	at d	-1.3450468
-1.5467142	by d	-1.3317646
-1.5467142	in d	-1.3528254
-1.5467142	with d	-1.3397826
-1.5467142	at k	-1.350248
-1.5467142	by k	-1.350248
-1.5467142	in k	-1.3344538
-1.5467142	with k	-1.3344538
-1.5467142	at q	-1.350248
-1.5467142	by q	-1.3344538
-1.5467142	in q	-1.350248
-1.5467142	with q	-1.3344538
-1.5467142	at x	-1.3344538
-1.5467142	by x	-1.3344538
-1.5467142	in x	-1.350248
-1.5467142	with x	-1.350248
-1.5467142	at y	-1.3397826
-1.5467142	by y	-1.3528254
-1.5467142	in y	-1.3317646
-1.5467142	with y	-1.3450468
-1.5467142	at j	-1.3317646
-1.5467142	by j	-1.3397826
-1.5467142	in j	-1.3450468
-1.5467142	with j	-1.3528254
-0.600338	<s> place	-3.1400888
-1.5467142	at c	-1.350248
-1.5467142	by c	-1.350248
-1.5467142	in c	-1.3344538
-1.5467142	with c	-1.3344538
-1.5467142	at p	-1.3397826
-1.5467142	by p	-1.3528254
-1.5467142	in p	-1.3317646
-1.5467142	with p	-1.3450468
-1.5467142	at v	-1.3528254
-1.5467142	by v	-1.3450468
-1.5467142	in v	-1.3397826
-1.5467142	with v	-1.3317646
-0.6098803	<s> set	-3.1305482

\3-grams:
-0.00011393909	two now </s>
-0.00012105967	three now </s>
-0.00011393909	four now </s>
-0.00012105967	five now </s>
-0.00011393909	six now </s>
-0.00012105967	seven now </s>
-0.00011393909	eight now </s>
-0.00012105967	nine now </s>
-0.00012105967	one now </s>
-0.00011393909	zero now </s>
-0.00012105967	two soon </s>
-0.00011393909	three soon </s>
-0.00012105967	four soon </s>
-0.00011393909	five soon </s>
-0.00012105967	six soon </s>
-0.00011393909	seven soon </s>
-0.00012105967	eight soon </s>
-0.00011393909	nine soon </s>
-0.00011393909	one soon </s>
-0.00012105967	zero soon </s>
-0.00011393909	two please </s>
-0.00012105967	three please </s>
-0.00011393909	four please </s>
-0.00012105967	five please </s>
-0.00011393909	six please </s>
-0.00012105967	seven please </s>
-0.00011393909	eight please </s>
-0.00012105967	nine please </s>
-0.00012105967	one please </s>
-0.000114068556	zero please </s>
-0.00012105967	two again </s>
-0.00011393909	three again </s>
-0.00012105967	four again </s>
-0.00011393909	five again </s>
-0.00012121502	six again </s>
-0.00011393909	seven again </s>
-0.00012105967	eight again </s>
-0.00011393909	nine again </s>
-0.00011393909	one again </s>
-0.00012105967	zero again </s>
-0.5939238	<s> bin blue
-0.6008167	<s> lay blue
-0.6117556	<s> place blue
-0.602644	<s> set blue
-0.59878266	bin blue at
-0.6018888	lay blue at
-0.6046763	place blue at
-0.6008105	set blue at
-0.6020961	bin green at
-0.59566677	lay green at
-0.60250616	place green at
-0.60617423	set green at
-0.5995704	bin red at
-0.60250616	lay red at
-0.6099869	place red at
-0.60446185	set red at
-0.60424304	bin white at
-0.6018888	lay white at
-0.60064346	place white at
-0.60038114	set white at
-1.3680787	blue at f
-1.3730103	green at f
-1.4013084	red at f
-1.4199016	white at f
-1.3769467	blue by f
-1.4013084	green by f
-1.4469856	red by f
-1.3682888	white by f
-1.4199016	blue in f
-1.3834647	green in f
-1.3730103	red in f
-1.4400659	white in f
-1.4400659	blue with f
-1.4469856	green with f
-1.3834647	red with f
-1.3769467	white with f
-1.0004734	at f two
-1.0057521	by f two
-1.0004878	in f two
-1.005932	with f two
-1.0057521	at l two
-1.005932	by l two
-1.0004734	in l two
-1.0004878	with l two
-0.97290313	at s two
-1.0244154	by s two
-0.9821017	in s two
-1.0368657	with s two
-1.0244154	at z two
-1.0368657	by z two
-0.97290313	in z two
-0.9821017	with z two
-0.9821017	at m two
-0.97290313	by m two
-1.0368657	in m two
-1.0244154	with m two
-0.9821017	at e two
-0.97290313	by e two
-1.0368657	in e two
-1.0244154	with e two
-1.0045811	at r two
-1.0004878	by r two
-1.0057521	in r two
-1.0004734	with r two
-1.0368657	at g two
-0.9821017	by g two
-1.0244154	in g two
-0.97290313	with g two
-1.0057521	at t two
-1.005932	by t two
-1.0004734	in t two
-1.0004878	with t two
-1.0244154	at a two
-1.0368657	by a two
-0.97290313	in a two
-0.9821017	with a two
-1.0004878	at h two
-1.0004734	by h two
-1.005932	in h two
-1.0057521	with h two
-1.0004734	at n two
-1.0057521	by n two
-1.0004878	in n two
-1.005932	with n two
-0.9821017	at u two
-0.97290313	by u two
-1.0368657	in u two
-1.0244154	with u two
-1.005932	at b two
-1.0004878	by b two
-1.0057521	in b two
-1.0004734	with b two
-1.0368657	at o two
-0.9821017	by o two
-1.0244154	in o two
-0.97290313	with o two
-1.0244154	at i two
-1.0368657	by i two
-0.97290313	in i two
-0.9821017	with i two
-1.0057521	at d two
-1.005932	by d two
-1.0004734	in d two
-1.0004878	with d two
-0.97290313	at k two
-1.0244154	by k two
-0.9821017	in k two
-1.0368657	with k two
-1.0244154	at q two
-1.0368657	by q two
-0.97290313	in q two
-0.9821017	with q two
-1.0368657	at x two
-0.9821017	by x two
-1.0244154	in x two
-0.97290313	with x two
-1.0004878	at y two
-1.0004734	by y two
-1.005932	in y two
-1.0057521	with y two
-1.005932	at j two
-1.0004878	by j two
-1.0057521	in j two
-1.0004734	with j two
-0.97290313	at c two
-1.0244154	by c two
-0.9821017	in c two
-1.0368657	with c two
-1.0004878	at p two
-1.0004734	by p two
-1.005932	in p two
-1.0057521	with p two
-1.0004734	at v two
-1.0057521	by v two
-1.0004878	in v two
-1.005932	with v two
-0.5901401	f two now
-0.5901401	l two now
-0.5901401	s two now
-0.5901401	z two now
-0.5901401	m two now
-0.5901401	e two now
-0.5901401	r two now
-0.5901401	g two now
-0.5901401	t two now
-0.5901401	a two now
-0.5901401	h two now
-0.5901401	n two now
-0.5901401	u two now
-0.5901401	b two now
-0.5901401	o two now
-0.5901401	i two now
-0.5901401	d two now
-0.5901401	k two now
-0.5901401	q two now
-0.5901401	x two now
-0.5901401	y two now
-0.5901401	j two now
-0.5901401	c two now
-0.5901401	p two now
-0.5901401	v two now
-0.61653435	f three now
-0.61653435	l three now
-0.61653435	s three now
-0.61653435	z three now
-0.61653435	m three now
-0.61653435	e three now
-0.61653435	r three now
-0.61653435	g three now
-0.61653435	t three now
-0.61653435	a three now
-0.61653435	h three now
-0.61653435	n three now
-0.61653435	u three now
-0.61653435	b three now
-0.61653435	o three now
-0.61653435	i three now
-0.61653435	d three now
-0.61653435	k three now
-0.61653435	q three now
-0.61653435	x three now
-0.61653435	y three now
-0.61653435	j three now
-0.61653435	c three now
-0.61653435	p three now
-0.61653435	v three now
-0.5901401	f four now
-0.5901401	l four now
-0.5901401	s four now
-0.5901401	z four now
-0.5901401	m four now
-0.5901401	e four now
-0.5901401	r four now
-0.5901401	g four now
-0.5901401	t four now
-0.5901401	a four now
-0.5901401	h four now
-0.5901401	n four now
-0.5901401	u four now
-0.5901401	b four now
-0.5901401	o four now
-0.5901401	i four now
-0.5901401	d four now
-0.5901401	k four now
-0.5901401	q four now
-0.5901401	x four now
-0.5901401	y four now
-0.5901401	j four now
-0.5901401	c four now
-0.5901401	p four now
-0.5901401	v four now
-0.61653435	f five now
-0.61653435	l five now
-0.61653435	s five now
-0.61653435	z five now
-0.61653435	m five now
-0.61653435	e five now
-0.61653435	r five now
-0.61653435	g five now
-0.61653435	t five now
-0.61653435	a five now
-0.61653435	h five now
-0.61653435	n five now
-0.61653435	u five now
-0.61653435	b five now
-0.61653435	o five now
-0.61653435	i five now
-0.61653435	d five now
-0.61653435	k five now
-0.61653435	q five now
-0.61653435	x five now
-0.61653435	y five now
-0.61653435	j five now
-0.61653435	c five now
-0.61653435	p five now
-0.61653435	v five now
-0.5901401	f six now
-0.5901401	l six now
-0.5901401	s six now
-0.5901401	z six now
-0.5901401	m six now
-0.5901401	e six now
-0.5868374	r six now
-0.5901401	g six now
-0.5901401	t six now
-0.5901401	a six now
-0.5901401	h six now
-0.5901401	n six now
-0.5901401	u six now
-0.5901401	b six now
-0.5901401	o six now
-0.5901401	i six now
-0.5901401	d six now
-0.5901401	k six now
-0.5901401	q six now
-0.5901401	x six now
-0.5901401	y six now
-0.5901401	j six now
-0.5901401	c six now
-0.5901401	p six now
-0.5901401	v six now
-0.61653435	f seven now
-0.61653435	l seven now
-0.61653435	s seven now
-0.61653435	z seven now
-0.61653435	m seven now
-0.61653435	e seven now
-0.61653435	r seven now
-0.61653435	g seven now
-0.61653435	t seven now
-0.61653435	a seven now
-0.61653435	h seven now
-0.61653435	n seven now
-0.61653435	u seven now
-0.61653435	b seven now
-0.61653435	o seven now
-0.61653435	i seven now
-0.61653435	d seven now
-0.61653435	k seven now
-0.61653435	q seven now
-0.61653435	x seven now
-0.61653435	y seven now
-0.61653435	j seven now
-0.61653435	c seven now
-0.61653435	p seven now
-0.61653435	v seven now
-0.5901401	f eight now
-0.5901401	l eight now
-0.5901401	s eight now
-0.5901401	z eight now
-0.5901401	m eight now
-0.5901401	e eight now
-0.5901401	r eight now
-0.5901401	g eight now
-0.5901401	t eight now
-0.5901401	a eight now
-0.5901401	h eight now
-0.5901401	n eight now
-0.5901401	u eight now
-0.5901401	b eight now
-0.5901401	o eight now
-0.5901401	i eight now
-0.5901401	d eight now
-0.5901401	k eight now
-0.5901401	q eight now
-0.5901401	x eight now
-0.5901401	y eight now
-0.5901401	j eight now
-0.5901401	c eight now
-0.5901401	p eight now
-0.5901401	v eight now
-0.61653435	f nine now
-0.61653435	l nine now
-0.61653435	s nine now
-0.61653435	z nine now
-0.61653435	m nine now
-0.61653435	e nine now
-0.61653435	r nine now
-0.61653435	g nine now
-0.61653435	t nine now
-0.61653435	a nine now
-0.61653435	h nine now
-0.61653435	n nine now
-0.61653435	u nine now
-0.61653435	b nine now
-0.61653435	o nine now
-0.61653435	i nine now
-0.61653435	d nine now
-0.61653435	k nine now
-0.61653435	q nine now
-0.61653435	x nine now
-0.61653435	y nine now
-0.61653435	j nine now
-0.61653435	c nine now
-0.61653435	p nine now
-0.61653435	v nine now
-0.61653435	f one now
-0.61653435	l one now
-0.61653435	s one now
-0.61653435	z one now
-0.61653435	m one now
-0.61653435	e one now
-0.61653435	r one now
-0.61653435	g one now
-0.61653435	t one now
-0.61653435	a one now
-0.61653435	h one now
-0.61653435	n one now
-0.61653435	u one now
-0.61653435	b one now
-0.61653435	o one now
-0.61653435	i one now
-0.61653435	d one now
-0.61653435	k one now
-0.61653435	q one now
-0.61653435	x one now
-0.61653435	y one now
-0.61653435	j one now
-0.61653435	c one now
-0.61653435	p one now
-0.61653435	v one now
-0.5901401	f zero now
-0.5901401	l zero now
-0.5901401	s zero now
-0.5901401	z zero now
-0.5901401	m zero now
-0.5901401	e zero now
-0.5901401	r zero now
-0.5901401	g zero now
-0.5901401	t zero now
-0.5901401	a zero now
-0.5901401	h zero now
-0.5901401	n zero now
-0.5901401	u zero now
-0.5901401	b zero now
-0.5901401	o zero now
-0.5901401	i zero now
-0.5901401	d zero now
-0.5901401	k zero now
-0.5901401	q zero now
-0.5901401	x zero now
-0.5901401	y zero now
-0.5901401	j zero now
-0.5901401	c zero now
-0.5901401	p zero now
-0.5901401	v zero now
-0.97548056	at f three
-1.0057521	by f three
-1.0004878	in f three
-1.0341766	with f three
-1.0057521	at l three
-1.0341766	by l three
-0.97548056	in l three
-1.0004878	with l three
-0.99789596	at s three
-1.0244154	by s three
-0.9821017	in s three
-1.0086211	with s three
-1.0244154	at z three
-1.0086211	by z three
-0.99789596	in z three
-0.9821017	with z three
-0.9821017	at m three
-0.99789596	by m three
-1.0086211	in m three
-1.0244154	with m three
-0.9821017	at e three
-0.99789596	by e three
-1.0086211	in e three
-1.0244154	with e three
-1.0328257	at r three
-1.0004878	by r three
-1.0057521	in r three
-0.97548056	with r three
-1.0086211	at g three
-0.9821017	by g three
-1.0244154	in g three
-0.99789596	with g three
-1.0057521	at t three
-1.0341766	by t three
-0.97548056	in t three
-1.0004878	with t three
-1.0244154	at a three
-1.0086211	by a three
-0.99789596	in a three
-0.9821017	with a three
-1.0004878	at h three
-0.97548056	by h three
-1.0341766	in h three
-1.0057521	with h three
-0.97548056	at n three
-1.0057521	by n three
-1.0004878	in n three
-1.0341766	with n three
-0.9821017	at u three
-0.99789596	by u three
-1.0086211	in u three
-1.0244154	with u three
-1.0341766	at b three
-1.0004878	by b three
-1.0057521	in b three
-0.97548056	with b three
-1.0086211	at o three
-0.9821017	by o three
-1.0244154	in o three
-0.99789596	with o three
-1.0244154	at i three
-1.0086211	by i three
-0.99789596	in i three
-0.9821017	with i three
-1.0057521	at d three
-1.0341766	by d three
-0.97548056	in d three
-1.0004878	with d three
-0.99789596	at k three
-1.0244154	by k three
-0.9821017	in k three
-1.0086211	with k three
-1.0244154	at q three
-1.0086211	by q three
-0.99789596	in q three
-0.9821017	with q three
-1.0086211	at x three
-0.9821017	by x three
-1.0244154	in x three
-0.99789596	with x three
-1.0004878	at y three
-0.97548056	by y three
-1.0341766	in y three
-1.0057521	with y three
-1.0341766	at j three
-1.0004878	by j three
-1.0057521	in j three
-0.97548056	with j three
-0.99789596	at c three
-1.0244154	by c three
-0.9821017	in c three
-1.0086211	with c three
-1.0004878	at p three
-0.97548056	by p three
-1.0341766	in p three
-1.0057521	with p three
-0.97548056	at v three
-1.0057521	by v three
-1.0004878	in v three
-1.0341766	with v three
-0.61653435	f two soon
-0.61653435	l two soon
-0.61653435	s two soon
-0.61653435	z two soon
-0.61653435	m two soon
-0.61653435	e two soon
-0.61653435	r two soon
-0.61653435	g two soon
-0.61653435	t two soon
-0.61653435	a two soon
-0.61653435	h two soon
-0.61653435	n two soon
-0.61653435	u two soon
-0.61653435	b two soon
-0.61653435	o two soon
-0.61653435	i two soon
-0.61653435	d two soon
-0.61653435	k two soon
-0.61653435	q two soon
-0.61653435	x two soon
-0.61653435	y two soon
-0.61653435	j two soon
-0.61653435	c two soon
-0.61653435	p two soon
-0.61653435	v two soon
-0.5901401	f three soon
-0.5901401	l three soon
-0.5901401	s three soon
-0.5901401	z three soon
-0.5901401	m three soon
-0.5901401	e three soon
-0.5901401	r three soon
-0.5901401	g three soon
-0.5901401	t three soon
-0.5901401	a three soon
-0.5901401	h three soon
-0.5901401	n three soon
-0.5901401	u three soon
-0.5901401	b three soon
-0.5901401	o three soon
-0.5901401	i three soon
-0.5901401	d three soon
-0.5901401	k three soon
-0.5901401	q three soon
-0.5901401	x three soon
-0.5901401	y three soon
-0.5901401	j three soon
-0.5901401	c three soon
-0.5901401	p three soon
-0.5901401	v three soon
-0.61653435	f four soon
-0.61653435	l four soon
-0.61653435	s four soon
-0.61653435	z four soon
-0.61653435	m four soon
-0.61653435	e four soon
-0.61653435	r four soon
-0.61653435	g four soon
-0.61653435	t four soon
-0.61653435	a four soon
-0.61653435	h four soon
-0.61653435	n four soon
-0.61653435	u four soon
-0.61653435	b four soon
-0.61653435	o four soon
-0.61653435	i four soon
-0.61653435	d four soon
-0.61653435	k four soon
-0.61653435	q four soon
-0.61653435	x four soon
-0.61653435	y four soon
-0.61653435	j four soon
-0.61653435	c four soon
-0.61653435	p four soon
-0.61653435	v four soon
-0.5901401	f five soon
-0.5901401	l five soon
-0.5901401	s five soon
-0.5901401	z five soon
-0.5901401	m five soon
-0.5901401	e five soon
-0.5901401	r five soon
-0.5901401	g five soon
-0.5901401	t five soon
-0.5901401	a five soon
-0.5901401	h five soon
-0.5901401	n five soon
-0.5901401	u five soon
-0.5901401	b five soon
-0.5901401	o five soon
-0.5901401	i five soon
-0.5901401	d five soon
-0.5901401	k five soon
-0.5901401	q five soon
-0.5901401	x five soon
-0.5901401	y five soon
-0.5901401	j five soon
-0.5901401	c five soon
-0.5901401	p five soon
-0.5901401	v five soon
-0.61653435	f six soon
-0.61653435	l six soon
-0.61653435	s six soon
-0.61653435	z six soon
-0.61653435	m six soon
-0.61653435	e six soon
-0.6132317	r six soon
-0.61653435	g six soon
-0.61653435	t six soon
-0.61653435	a six soon
-0.61653435	h six soon
-0.61653435	n six soon
-0.61653435	u six soon
-0.61653435	b six soon
-0.61653435	o six soon
-0.61653435	i six soon
-0.61653435	d six soon
-0.61653435	k six soon
-0.61653435	q six soon
-0.61653435	x six soon
-0.61653435	y six soon
-0.61653435	j six soon
-0.61653435	c six soon
-0.61653435	p six soon
-0.61653435	v six soon
-0.5901401	f seven soon
-0.5901401	l seven soon
-0.5901401	s seven soon
-0.5901401	z seven soon
-0.5901401	m seven soon
-0.5901401	e seven soon
-0.5901401	r seven soon
-0.5901401	g seven soon
-0.5901401	t seven soon
-0.5901401	a seven soon
-0.5901401	h seven soon
-0.5901401	n seven soon
-0.5901401	u seven soon
-0.5901401	b seven soon
-0.5901401	o seven soon
-0.5901401	i seven soon
-0.5901401	d seven soon
-0.5901401	k seven soon
-0.5901401	q seven soon
-0.5901401	x seven soon
-0.5901401	y seven soon
-0.5901401	j seven soon
-0.5901401	c seven soon
-0.5901401	p seven soon
-0.5901401	v seven soon
-0.61653435	f eight soon
-0.61653435	l eight soon
-0.61653435	s eight soon
-0.61653435	z eight soon
-0.61653435	m eight soon
-0.61653435	e eight soon
-0.61653435	r eight soon
-0.61653435	g eight soon
-0.61653435	t eight soon
-0.61653435	a eight soon
-0.61653435	h eight soon
-0.61653435	n eight soon
-0.61653435	u eight soon
-0.61653435	b eight soon
-0.61653435	o eight soon
-0.61653435	i eight soon
-0.61653435	d eight soon
-0.61653435	k eight soon
-0.61653435	q eight soon
-0.61653435	x eight soon
-0.61653435	y eight soon
-0.61653435	j eight soon
-0.61653435	c eight soon
-0.61653435	p eight soon
-0.61653435	v eight soon
-0.5901401	f nine soon
-0.5901401	l nine soon
-0.5901401	s nine soon
-0.5901401	z nine soon
-0.5901401	m nine soon
-0.5901401	e nine soon
-0.5901401	r nine soon
-0.5901401	g nine soon
-0.5901401	t nine soon
-0.5901401	a nine soon
-0.5901401	h nine soon
-0.5901401	n nine soon
-0.5901401	u nine soon
-0.5901401	b nine soon
-0.5901401	o nine soon
-0.5901401	i nine soon
-0.5901401	d nine soon
-0.5901401	k nine soon
-0.5901401	q nine soon
-0.5901401	x nine soon
-0.5901401	y nine soon
-0.5901401	j nine soon
-0.5901401	c nine soon
-0.5901401	p nine soon
-0.5901401	v nine soon
-0.5901401	f one soon
-0.5901401	l one soon
-0.5901401	s one soon
-0.5901401	z one soon
-0.5901401	m one soon
-0.5901401	e one soon
-0.5901401	r one soon
-0.5901401	g one soon
-0.5901401	t one soon
-0.5901401	a one soon
-0.5901401	h one soon
-0.5901401	n one soon
-0.5901401	u one soon
-0.5901401	b one soon
-0.5901401	o one soon
-0.5901401	i one soon
-0.5901401	d one soon
-0.5901401	k one soon
-0.5901401	q one soon
-0.5901401	x one soon
-0.5901401	y one soon
-0.5901401	j one soon
-0.5901401	c one soon
-0.5901401	p one soon
-0.5901401	v one soon
-0.61653435	f zero soon
-0.61653435	l zero soon
-0.61653435	s zero soon
-0.61653435	z zero soon
-0.61653435	m zero soon
-0.61653435	e zero soon
-0.61653435	r zero soon
-0.61653435	g zero soon
-0.61653435	t zero soon
-0.61653435	a zero soon
-0.61653435	h zero soon
-0.61653435	n zero soon
-0.61653435	u zero soon
-0.61653435	b zero soon
-0.61653435	o zero soon
-0.61653435	i zero soon
-0.61653435	d zero soon
-0.61653435	k zero soon
-0.61653435	q zero soon
-0.61653435	x zero soon
-0.61653435	y zero soon
-0.61653435	j zero soon
-0.61653435	c zero soon
-0.61653435	p zero soon
-0.61653435	v zero soon
-0.97548056	at f four
-1.0192142	by f four
-0.9874305	in f four
-1.0341766	with f four
-1.0192142	at l four
-1.0341766	by l four
-0.97548056	in l four
-0.9874305	with l four
-1.0109533	at s four
-0.99789596	by s four
-1.0086211	in s four
-0.995159	with s four
-0.99789596	at z four
-0.995159	by z four
-1.0109533	in z four
-1.0086211	with z four
-1.0086211	at m four
-1.0109533	by m four
-0.995159	in m four
-0.99789596	with m four
-1.0086211	at e four
-1.0109533	by e four
-0.995159	in e four
-0.99789596	with e four
-1.0328257	at r four
-0.9874305	by r four
-1.0192142	in r four
-0.97548056	with r four
-0.995159	at g four
-1.0086211	by g four
-0.99789596	in g four
-1.0109533	with g four
-1.0192142	at t four
-1.0341766	by t four
-0.97548056	in t four
-0.9874305	with t four
-0.99789596	at a four
-0.995159	by a four
-1.0109533	in a four
-1.0086211	with a four
-0.9874305	at h four
-0.97548056	by h four
-1.0341766	in h four
-1.0192142	with h four
-0.97548056	at n four
-1.0192142	by n four
-0.9874305	in n four
-1.0341766	with n four
-1.0086211	at u four
-1.0109533	by u four
-0.995159	in u four
-0.99789596	with u four
-1.0341766	at b four
-0.9874305	by b four
-1.0192142	in b four
-0.97548056	with b four
-0.995159	at o four
-1.0086211	by o four
-0.99789596	in o four
-1.0109533	with o four
-0.99789596	at i four
-0.995159	by i four
-1.0109533	in i four
-1.0086211	with i four
-1.0192142	at d four
-1.0341766	by d four
-0.97548056	in d four
-0.9874305	with d four
-1.0109533	at k four
-0.99789596	by k four
-1.0086211	in k four
-0.995159	with k four
-0.99789596	at q four
-0.995159	by q four
-1.0109533	in q four
-1.0086211	with q four
-0.995159	at x four
-1.0086211	by x four
-0.99789596	in x four
-1.0109533	with x four
-0.9874305	at y four
-0.97548056	by y four
-1.0341766	in y four
-1.0192142	with y four
-1.0341766	at j four
-0.9874305	by j four
-1.0192142	in j four
-0.97548056	with j four
-1.0109533	at c four
-0.99789596	by c four
-1.0086211	in c four
-0.995159	with c four
-0.9874305	at p four
-0.97548056	by p four
-1.0341766	in p four
-1.0192142	with p four
-0.97548056	at v four
-1.0192142	by v four
-0.9874305	in v four
-1.0341766	with v four
-0.5901401	f two please
-0.5901401	l two please
-0.5901401	s two please
-0.5901401	z two please
-0.5901401	m two please
-0.5901401	e two please
-0.5901401	r two please
-0.5901401	g two please
-0.5901401	t two please
-0.5901401	a two please
-0.5901401	h two please
-0.5901401	n two please
-0.5901401	u two please
-0.5901401	b two please
-0.5901401	o two please
-0.5901401	i two please
-0.5901401	d two please
-0.5901401	k two please
-0.5901401	q two please
-0.5901401	x two please
-0.5901401	y two please
-0.5901401	j two please
-0.5901401	c two please
-0.5901401	p two please
-0.5901401	v two please
-0.61653435	f three please
-0.61653435	l three please
-0.61653435	s three please
-0.61653435	z three please
-0.61653435	m three please
-0.61653435	e three please
-0.61653435	r three please
-0.61653435	g three please
-0.61653435	t three please
-0.61653435	a three please
-0.61653435	h three please
-0.61653435	n three please
-0.61653435	u three please
-0.61653435	b three please
-0.61653435	o three please
-0.61653435	i three please
-0.61653435	d three please
-0.61653435	k three please
-0.61653435	q three please
-0.61653435	x three please
-0.61653435	y three please
-0.61653435	j three please
-0.61653435	c three please
-0.61653435	p three please
-0.61653435	v three please
-0.5901401	f four please
-0.5901401	l four please
-0.5901401	s four please
-0.5901401	z four please
-0.5901401	m four please
-0.5901401	e four please
-0.5901401	r four please
-0.5901401	g four please
-0.5901401	t four please
-0.5901401	a four please
-0.5901401	h four please
-0.5901401	n four please
-0.5901401	u four please
-0.5901401	b four please
-0.5901401	o four please
-0.5901401	i four please
-0.5901401	d four please
-0.5901401	k four please
-0.5901401	q four please
-0.5901401	x four please
-0.5901401	y four please
-0.5901401	j four please
-0.5901401	c four please
-0.5901401	p four please
-0.5901401	v four please
-0.61653435	f five please
-0.61653435	l five please
-0.61653435	s five please
-0.61653435	z five please
-0.61653435	m five please
-0.61653435	e five please
-0.61653435	r five please
-0.61653435	g five please
-0.61653435	t five please
-0.61653435	a five please
-0.61653435	h five please
-0.61653435	n five please
-0.61653435	u five please
-0.61653435	b five please
-0.61653435	o five please
-0.61653435	i five please
-0.61653435	d five please
-0.61653435	k five please
-0.61653435	q five please
-0.61653435	x five please
-0.61653435	y five please
-0.61653435	j five please
-0.61653435	c five please
-0.61653435	p five please
-0.61653435	v five please
-0.5901401	f six please
-0.5901401	l six please
-0.5901401	s six please
-0.5901401	z six please
-0.5901401	m six please
-0.5901401	e six please
-0.5868374	r six please
-0.5901401	g six please
-0.5901401	t six please
-0.5901401	a six please
-0.5901401	h six please
-0.5901401	n six please
-0.5901401	u six please
-0.5901401	b six please
-0.5901401	o six please
-0.5901401	i six please
-0.5901401	d six please
-0.5901401	k six please
-0.5901401	q six please
-0.5901401	x six please
-0.5901401	y six please
-0.5901401	j six please
-0.5901401	c six please
-0.5901401	p six please
-0.5901401	v six please
-0.61653435	f seven please
-0.61653435	l seven please
-0.61653435	s seven please
-0.61653435	z seven please
-0.61653435	m seven please
-0.61653435	e seven please
-0.61653435	r seven please
-0.61653435	g seven please
-0.61653435	t seven please
-0.61653435	a seven please
-0.61653435	h seven please
-0.61653435	n seven please
-0.61653435	u seven please
-0.61653435	b seven please
-0.61653435	o seven please
-0.61653435	i seven please
-0.61653435	d seven please
-0.61653435	k seven please
-0.61653435	q seven please
-0.61653435	x seven please
-0.61653435	y seven please
-0.61653435	j seven please
-0.61653435	c seven please
-0.61653435	p seven please
-0.61653435	v seven please
-0.5901401	f eight please
-0.5901401	l eight please
-0.5901401	s eight please
-0.5901401	z eight please
-0.5901401	m eight please
-0.5901401	e eight please
-0.5901401	r eight please
-0.5901401	g eight please
-0.5901401	t eight please
-0.5901401	a eight please
-0.5901401	h eight please
-0.5901401	n eight please
-0.5901401	u eight please
-0.5901401	b eight please
-0.5901401	o eight please
-0.5901401	i eight please
-0.5901401	d eight please
-0.5901401	k eight please
-0.5901401	q eight please
-0.5901401	x eight please
-0.5901401	y eight please
-0.5901401	j eight please
-0.5901401	c eight please
-0.5901401	p eight please
-0.5901401	v eight please
-0.61653435	f nine please
-0.61653435	l nine please
-0.61653435	s nine please
-0.61653435	z nine please
-0.61653435	m nine please
-0.61653435	e nine please
-0.61653435	r nine please
-0.61653435	g nine please
-0.61653435	t nine please
-0.61653435	a nine please
-0.61653435	h nine please
-0.61653435	n nine please
-0.61653435	u nine please
-0.61653435	b nine please
-0.61653435	o nine please
-0.61653435	i nine please
-0.61653435	d nine please
-0.61653435	k nine please
-0.61653435	q nine please
-0.61653435	x nine please
-0.61653435	y nine please
-0.61653435	j nine please
-0.61653435	c nine please
-0.61653435	p nine please
-0.61653435	v nine please
-0.61653435	f one please
-0.61653435	l one please
-0.61653435	s one please
-0.61653435	z one please
-0.61653435	m one please
-0.61653435	e one please
-0.61653435	r one please
-0.61653435	g one please
-0.61653435	t one please
-0.61653435	a one please
-0.61653435	h one please
-0.61653435	n one please
-0.61653435	u one please
-0.61653435	b one please
-0.61653435	o one please
-0.61653435	i one please
-0.61653435	d one please
-0.61653435	k one please
-0.61653435	q one please
-0.61653435	x one please
-0.61653435	y one please
-0.61653435	j one please
-0.61653435	c one please
-0.61653435	p one please
-0.61653435	v one please
-0.5901401	f zero please
-0.5901401	l zero please
-0.5901401	s zero please
-0.5901401	z zero please
-0.5901401	m zero please
-0.5901401	e zero please
-0.5901401	r zero please
-0.5901401	g zero please
-0.5901401	t zero please
-0.5901401	a zero please
-0.5901401	h zero please
-0.5901401	n zero please
-0.5901401	u zero please
-0.5901401	b zero please
-0.5901401	o zero please
-0.5901401	i zero please
-0.5901401	d zero please
-0.5901401	k zero please
-0.5901401	q zero please
-0.5901401	x zero please
-0.5901401	y zero please
-0.5901401	j zero please
-0.5901401	c zero please
-0.5901401	p zero please
-0.5901401	v zero please
-1.0004734	at f five
-1.0192142	by f five
-0.9874305	in f five
-1.005932	with f five
-1.0192142	at l five
-1.005932	by l five
-1.0004734	in l five
-0.9874305	with l five
-1.0109533	at s five
-0.97290313	by s five
-1.0368657	in s five
-0.995159	with s five
-0.97290313	at z five
-0.995159	by z five
-1.0109533	in z five
-1.0368657	with z five
-1.0368657	at m five
-1.0109533	by m five
-0.995159	in m five
-0.97290313	with m five
-1.0368657	at e five
-1.0109533	by e five
-0.995159	in e five
-0.97290313	with e five
-1.0045811	at r five
-0.9874305	by r five
-1.0192142	in r five
-1.0004734	with r five
-0.995159	at g five
-1.0368657	by g five
-0.97290313	in g five
-1.0109533	with g five
-1.0192142	at t five
-1.005932	by t five
-1.0004734	in t five
-0.9874305	with t five
-0.97290313	at a five
-0.995159	by a five
-1.0109533	in a five
-1.0368657	with a five
-0.9874305	at h five
-1.0004734	by h five
-1.005932	in h five
-1.0192142	with h five
-1.0004734	at n five
-1.0192142	by n five
-0.9874305	in n five
-1.005932	with n five
-1.0368657	at u five
-1.0109533	by u five
-0.995159	in u five
-0.97290313	with u five
-1.005932	at b five
-0.9874305	by b five
-1.0192142	in b five
-1.0004734	with b five
-0.995159	at o five
-1.0368657	by o five
-0.97290313	in o five
-1.0109533	with o five
-0.97290313	at i five
-0.995159	by i five
-1.0109533	in i five
-1.0368657	with i five
-1.0192142	at d five
-1.005932	by d five
-1.0004734	in d five
-0.9874305	with d five
-1.0109533	at k five
-0.97290313	by k five
-1.0368657	in k five
-0.995159	with k five
-0.97290313	at q five
-0.995159	by q five
-1.0109533	in q five
-1.0368657	with q five
-0.995159	at x five
-1.0368657	by x five
-0.97290313	in x five
-1.0109533	with x five
-0.9874305	at y five
-1.0004734	by y five
-1.005932	in y five
-1.0192142	with y five
-1.005932	at j five
-0.9874305	by j five
-1.0192142	in j five
-1.0004734	with j five
-1.0109533	at c five
-0.97290313	by c five
-1.0368657	in c five
-0.995159	with c five
-0.9874305	at p five
-1.0004734	by p five
-1.005932	in p five
-1.0192142	with p five
-1.0004734	at v five
-1.0192142	by v five
-0.9874305	in v five
-1.005932	with v five
-0.61653435	f two again
-0.61653435	l two again
-0.61653435	s two again
-0.61653435	z two again
-0.61653435	m two again
-0.61653435	e two again
-0.61653435	r two again
-0.61653435	g two again
-0.61653435	t two again
-0.61653435	a two again
-0.61653435	h two again
-0.61653435	n two again
-0.61653435	u two again
-0.61653435	b two again
-0.61653435	o two again
-0.61653435	i two again
-0.61653435	d two again
-0.61653435	k two again
-0.61653435	q two again
-0.61653435	x two again
-0.61653435	y two again
-0.61653435	j two again
-0.61653435	c two again
-0.61653435	p two again
-0.61653435	v two again
-0.5901401	f three again
-0.5901401	l three again
-0.5901401	s three again
-0.5901401	z three again
-0.5901401	m three again
-0.5901401	e three again
-0.5901401	r three again
-0.5901401	g three again
-0.5901401	t three again
-0.5901401	a three again
-0.5901401	h three again
-0.5901401	n three again
-0.5901401	u three again
-0.5901401	b three again
-0.5901401	o three again
-0.5901401	i three again
-0.5901401	d three again
-0.5901401	k three again
-0.5901401	q three again
-0.5901401	x three again
-0.5901401	y three again
-0.5901401	j three again
-0.5901401	c three again
-0.5901401	p three again
-0.5901401	v three again
-0.61653435	f four again
-0.61653435	l four again
-0.61653435	s four again
-0.61653435	z four again
-0.61653435	m four again
-0.61653435	e four again
-0.61653435	r four again
-0.61653435	g four again
-0.61653435	t four again
-0.61653435	a four again
-0.61653435	h four again
-0.61653435	n four again
-0.61653435	u four again
-0.61653435	b four again
-0.61653435	o four again
-0.61653435	i four again
-0.61653435	d four again
-0.61653435	k four again
-0.61653435	q four again
-0.61653435	x four again
-0.61653435	y four again
-0.61653435	j four again
-0.61653435	c four again
-0.61653435	p four again
-0.61653435	v four again
-0.5901401	f five again
-0.5901401	l five again
-0.5901401	s five again
-0.5901401	z five again
-0.5901401	m five again
-0.5901401	e five again
-0.5901401	r five again
-0.5901401	g five again
-0.5901401	t five again
-0.5901401	a five again
-0.5901401	h five again
-0.5901401	n five again
-0.5901401	u five again
-0.5901401	b five again
-0.5901401	o five again
-0.5901401	i five again
-0.5901401	d five again
-0.5901401	k five again
-0.5901401	q five again
-0.5901401	x five again
-0.5901401	y five again
-0.5901401	j five again
-0.5901401	c five again
-0.5901401	p five again
-0.5901401	v five again
-0.61653435	f six again
-0.61653435	l six again
-0.61653435	s six again
-0.61653435	z six again
-0.61653435	m six again
-0.61653435	e six again
-0.6270559	r six again
-0.61653435	g six again
-0.61653435	t six again
-0.61653435	a six again
-0.61653435	h six again
-0.61653435	n six again
-0.61653435	u six again
-0.61653435	b six again
-0.61653435	o six again
-0.61653435	i six again
-0.61653435	d six again
-0.61653435	k six again
-0.61653435	q six again
-0.61653435	x six again
-0.61653435	y six again
-0.61653435	j six again
-0.61653435	c six again
-0.61653435	p six again
-0.61653435	v six again
-0.5901401	f seven again
-0.5901401	l seven again
-0.5901401	s seven again
-0.5901401	z seven again
-0.5901401	m seven again
-0.5901401	e seven again
-0.5901401	r seven again
-0.5901401	g seven again
-0.5901401	t seven again
-0.5901401	a seven again
-0.5901401	h seven again
-0.5901401	n seven again
-0.5901401	u seven again
-0.5901401	b seven again
-0.5901401	o seven again
-0.5901401	i seven again
-0.5901401	d seven again
-0.5901401	k seven again
-0.5901401	q seven again
-0.5901401	x seven again
-0.5901401	y seven again
-0.5901401	j seven again
-0.5901401	c seven again
-0.5901401	p seven again
-0.5901401	v seven again
-0.61653435	f eight again
-0.61653435	l eight again
-0.61653435	s eight again
-0.61653435	z eight again
-0.61653435	m eight again
-0.61653435	e eight again
-0.61653435	r eight again
-0.61653435	g eight again
-0.61653435	t eight again
-0.61653435	a eight again
-0.61653435	h eight again
-0.61653435	n eight again
-0.61653435	u eight again
-0.61653435	b eight again
-0.61653435	o eight again
-0.61653435	i eight again
-0.61653435	d eight again
-0.61653435	k eight again
-0.61653435	q eight again
-0.61653435	x eight again
-0.61653435	y eight again
-0.61653435	j eight again
-0.61653435	c eight again
-0.61653435	p eight again
-0.61653435	v eight again
-0.5901401	f nine again
-0.5901401	l nine again
-0.5901401	s nine again
-0.5901401	z nine again
-0.5901401	m nine again
-0.5901401	e nine again
-0.5901401	r nine again
-0.5901401	g nine again
-0.5901401	t nine again
-0.5901401	a nine again
-0.5901401	h nine again
-0.5901401	n nine again
-0.5901401	u nine again
-0.5901401	b nine again
-0.5901401	o nine again
-0.5901401	i nine again
-0.5901401	d nine again
-0.5901401	k nine again
-0.5901401	q nine again
-0.5901401	x nine again
-0.5901401	y nine again
-0.5901401	j nine again
-0.5901401	c nine again
-0.5901401	p nine again
-0.5901401	v nine again
-0.5901401	f one again
-0.5901401	l one again
-0.5901401	s one again
-0.5901401	z one again
-0.5901401	m one again
-0.5901401	e one again
-0.5901401	r one again
-0.5901401	g one again
-0.5901401	t one again
-0.5901401	a one again
-0.5901401	h one again
-0.5901401	n one again
-0.5901401	u one again
-0.5901401	b one again
-0.5901401	o one again
-0.5901401	i one again
-0.5901401	d one again
-0.5901401	k one again
-0.5901401	q one again
-0.5901401	x one again
-0.5901401	y one again
-0.5901401	j one again
-0.5901401	c one again
-0.5901401	p one again
-0.5901401	v one again
-0.61653435	f zero again
-0.61653435	l zero again
-0.61653435	s zero again
-0.61653435	z zero again
-0.61653435	m zero again
-0.61653435	e zero again
-0.61653435	r zero again
-0.61653435	g zero again
-0.61653435	t zero again
-0.61653435	a zero again
-0.61653435	h zero again
-0.61653435	n zero again
-0.61653435	u zero again
-0.61653435	b zero again
-0.61653435	o zero again
-0.61653435	i zero again
-0.61653435	d zero again
-0.61653435	k zero again
-0.61653435	q zero again
-0.61653435	x zero again
-0.61653435	y zero again
-0.61653435	j zero again
-0.61653435	c zero again
-0.61653435	p zero again
-0.61653435	v zero again
-1.3779986	blue at l
-1.4038371	green at l
-1.446141	red at l
-1.3678687	white at l
-1.4417541	blue by l
-1.446141	green by l
-1.3813605	red by l
-1.3782086	white by l
-1.3678687	blue in l
-1.3734304	green in l
-1.4038371	red in l
-1.4173717	white in l
-1.4173717	blue with l
-1.3813605	green with l
-1.3734304	red with l
-1.4417541	white with l
-1.0135307	at f six
-0.99269474	by f six
-1.0139499	in f six
-0.99246985	with f six
-0.99269474	at l six
-0.99246985	by l six
-1.0135307	in l six
-1.0139499	with l six
-0.99789596	at s six
-0.97290313	by s six
-1.0368657	in s six
-1.0086211	with s six
-0.97290313	at z six
-1.0086211	by z six
-0.99789596	in z six
-1.0368657	with z six
-1.0368657	at m six
-0.99789596	by m six
-1.0086211	in m six
-0.97290313	with m six
-1.0368657	at e six
-0.99789596	by e six
-1.0086211	in e six
-0.97290313	with e six
-1.0045811	at r six
-1.0139499	by r six
-0.99269474	in r six
-1.0135307	with r six
-1.0086211	at g six
-1.0368657	by g six
-0.97290313	in g six
-0.99789596	with g six
-0.99269474	at t six
-0.99246985	by t six
-1.0135307	in t six
-1.0139499	with t six
-0.97290313	at a six
-1.0086211	by a six
-0.99789596	in a six
-1.0368657	with a six
-1.0139499	at h six
-1.0135307	by h six
-0.99246985	in h six
-0.99269474	with h six
-1.0135307	at n six
-0.99269474	by n six
-1.0139499	in n six
-0.99246985	with n six
-1.0368657	at u six
-0.99789596	by u six
-1.0086211	in u six
-0.97290313	with u six
-0.99246985	at b six
-1.0139499	by b six
-0.99269474	in b six
-1.0135307	with b six
-1.0086211	at o six
-1.0368657	by o six
-0.97290313	in o six
-0.99789596	with o six
-0.97290313	at i six
-1.0086211	by i six
-0.99789596	in i six
-1.0368657	with i six
-0.99269474	at d six
-0.99246985	by d six
-1.0135307	in d six
-1.0139499	with d six
-0.99789596	at k six
-0.97290313	by k six
-1.0368657	in k six
-1.0086211	with k six
-0.97290313	at q six
-1.0086211	by q six
-0.99789596	in q six
-1.0368657	with q six
-1.0086211	at x six
-1.0368657	by x six
-0.97290313	in x six
-0.99789596	with x six
-1.0139499	at y six
-1.0135307	by y six
-0.99246985	in y six
-0.99269474	with y six
-0.99246985	at j six
-1.0139499	by j six
-0.99269474	in j six
-1.0135307	with j six
-0.99789596	at c six
-0.97290313	by c six
-1.0368657	in c six
-1.0086211	with c six
-1.0139499	at p six
-1.0135307	by p six
-0.99246985	in p six
-0.99269474	with p six
-1.0135307	at v six
-0.99269474	by v six
-1.0139499	in v six
-0.99246985	with v six
-1.0135307	at f seven
-0.967702	by f seven
-1.0421946	in f seven
-0.99246985	with f seven
-0.967702	at l seven
-0.99246985	by l seven
-1.0135307	in l seven
-1.0421946	with l seven
-0.99789596	at s seven
-0.99789596	by s seven
-1.0086211	in s seven
-1.0086211	with s seven
-0.99789596	at z seven
-1.0086211	by z seven
-0.99789596	in z seven
-1.0086211	with z seven
-1.0086211	at m seven
-0.99789596	by m seven
-1.0086211	in m seven
-0.99789596	with m seven
-1.0086211	at e seven
-0.99789596	by e seven
-1.0086211	in e seven
-0.99789596	with e seven
-0.99111897	at r seven
-1.0421946	by r seven
-0.967702	in r seven
-1.0135307	with r seven
-1.0086211	at g seven
-1.0086211	by g seven
-0.99789596	in g seven
-0.99789596	with g seven
-0.967702	at t seven
-0.99246985	by t seven
-1.0135307	in t seven
-1.0421946	with t seven
-0.99789596	at a seven
-1.0086211	by a seven
-0.99789596	in a seven
-1.0086211	with a seven
-1.0421946	at h seven
-1.0135307	by h seven
-0.99246985	in h seven
-0.967702	with h seven
-1.0135307	at n seven
-0.967702	by n seven
-1.0421946	in n seven
-0.99246985	with n seven
-1.0086211	at u seven
-0.99789596	by u seven
-1.0086211	in u seven
-0.99789596	with u seven
-0.99246985	at b seven
-1.0421946	by b seven
-0.967702	in b seven
-1.0135307	with b seven
-1.0086211	at o seven
-1.0086211	by o seven
-0.99789596	in o seven
-0.99789596	with o seven
-0.99789596	at i seven
-1.0086211	by i seven
-0.99789596	in i seven
-1.0086211	with i seven
-0.967702	at d seven
-0.99246985	by d seven
-1.0135307	in d seven
-1.0421946	with d seven
-0.99789596	at k seven
-0.99789596	by k seven
-1.0086211	in k seven
-1.0086211	with k seven
-0.99789596	at q seven
-1.0086211	by q seven
-0.99789596	in q seven
-1.0086211	with q seven
-1.0086211	at x seven
-1.0086211	by x seven
-0.99789596	in x seven
-0.99789596	with x seven
-1.0421946	at y seven
-1.0135307	by y seven
-0.99246985	in y seven
-0.967702	with y seven
-0.99246985	at j seven
-1.0421946	by j seven
-0.967702	in j seven
-1.0135307	with j seven
-0.99789596	at c seven
-0.99789596	by c seven
-1.0086211	in c seven
-1.0086211	with c seven
-1.0421946	at p seven
-1.0135307	by p seven
-0.99246985	in p seven
-0.967702	with p seven
-1.0135307	at v seven
-0.967702	by v seven
-1.0421946	in v seven
-0.99246985	with v seven
-1.0004734	at f eight
-0.967702	by f eight
-1.0421946	in f eight
-1.005932	with f eight
-0.967702	at l eight
-1.005932	by l eight
-1.0004734	in l eight
-1.0421946	with l eight
-1.0244154	at s eight
-1.0109533	by s eight
-0.995159	in s eight
-0.9821017	with s eight
-1.0109533	at z eight
-0.9821017	by z eight
-1.0244154	in z eight
-0.995159	with z eight
-0.995159	at m eight
-1.0244154	by m eight
-0.9821017	in m eight
-1.0109533	with m eight
-0.995159	at e eight
-1.0244154	by e eight
-0.9821017	in e eight
-1.0109533	with e eight
-1.0045811	at r eight
-1.0421946	by r eight
-0.967702	in r eight
-1.0004734	with r eight
-0.9821017	at g eight
-0.995159	by g eight
-1.0109533	in g eight
-1.0244154	with g eight
-0.967702	at t eight
-1.005932	by t eight
-1.0004734	in t eight
-1.0421946	with t eight
-1.0109533	at a eight
-0.9821017	by a eight
-1.0244154	in a eight
-0.995159	with a eight
-1.0421946	at h eight
-1.0004734	by h eight
-1.005932	in h eight
-0.967702	with h eight
-1.0004734	at n eight
-0.967702	by n eight
-1.0421946	in n eight
-1.005932	with n eight
-0.995159	at u eight
-1.0244154	by u eight
-0.9821017	in u eight
-1.0109533	with u eight
-1.005932	at b eight
-1.0421946	by b eight
-0.967702	in b eight
-1.0004734	with b eight
-0.9821017	at o eight
-0.995159	by o eight
-1.0109533	in o eight
-1.0244154	with o eight
-1.0109533	at i eight
-0.9821017	by i eight
-1.0244154	in i eight
-0.995159	with i eight
-0.967702	at d eight
-1.005932	by d eight
-1.0004734	in d eight
-1.0421946	with d eight
-1.0244154	at k eight
-1.0109533	by k eight
-0.995159	in k eight
-0.9821017	with k eight
-1.0109533	at q eight
-0.9821017	by q eight
-1.0244154	in q eight
-0.995159	with q eight
-0.9821017	at x eight
-0.995159	by x eight
-1.0109533	in x eight
-1.0244154	with x eight
-1.0421946	at y eight
-1.0004734	by y eight
-1.005932	in y eight
-0.967702	with y eight
-1.005932	at j eight
-1.0421946	by j eight
-0.967702	in j eight
-1.0004734	with j eight
-1.0244154	at c eight
-1.0109533	by c eight
-0.995159	in c eight
-0.9821017	with c eight
-1.0421946	at p eight
-1.0004734	by p eight
-1.005932	in p eight
-0.967702	with p eight
-1.0004734	at v eight
-0.967702	by v eight
-1.0421946	in v eight
-1.005932	with v eight
-1.0004734	at f nine
-0.99269474	by f nine
-1.0139499	in f nine
-1.005932	with f nine
-0.99269474	at l nine
-1.005932	by l nine
-1.0004734	in l nine
-1.0139499	with l nine
-1.05266	at s nine
-1.0109533	by s nine
-0.995159	in s nine
-0.9571089	with s nine
-1.0109533	at z nine
-0.9571089	by z nine
-1.05266	in z nine
-0.995159	with z nine
-0.995159	at m nine
-1.05266	by m nine
-0.9571089	in m nine
-1.0109533	with m nine
-0.995159	at e nine
-1.05266	by e nine
-0.9571089	in e nine
-1.0109533	with e nine
-1.0045811	at r nine
-1.0139499	by r nine
-0.99269474	in r nine
-1.0004734	with r nine
-0.9571089	at g nine
-0.995159	by g nine
-1.0109533	in g nine
-1.05266	with g nine
-0.99269474	at t nine
-1.005932	by t nine
-1.0004734	in t nine
-1.0139499	with t nine
-1.0109533	at a nine
-0.9571089	by a nine
-1.05266	in a nine
-0.995159	with a nine
-1.0139499	at h nine
-1.0004734	by h nine
-1.005932	in h nine
-0.99269474	with h nine
-1.0004734	at n nine
-0.99269474	by n nine
-1.0139499	in n nine
-1.005932	with n nine
-0.995159	at u nine
-1.05266	by u nine
-0.9571089	in u nine
-1.0109533	with u nine
-1.005932	at b nine
-1.0139499	by b nine
-0.99269474	in b nine
-1.0004734	with b nine
-0.9571089	at o nine
-0.995159	by o nine
-1.0109533	in o nine
-1.05266	with o nine
-1.0109533	at i nine
-0.9571089	by i nine
-1.05266	in i nine
-0.995159	with i nine
-0.99269474	at d nine
-1.005932	by d nine
-1.0004734	in d nine
-1.0139499	with d nine
-1.05266	at k nine
-1.0109533	by k nine
-0.995159	in k nine
-0.9571089	with k nine
-1.0109533	at q nine
-0.9571089	by q nine
-1.05266	in q nine
-0.995159	with q nine
-0.9571089	at x nine
-0.995159	by x nine
-1.0109533	in x nine
-1.05266	with x nine
-1.0139499	at y nine
-1.0004734	by y nine
-1.005932	in y nine
-0.99269474	with y nine
-1.005932	at j nine
-1.0139499	by j nine
-0.99269474	in j nine
-1.0004734	with j nine
-1.05266	at c nine
-1.0109533	by c nine
-0.995159	in c nine
-0.9571089	with c nine
-1.0139499	at p nine
-1.0004734	by p nine
-1.005932	in p nine
-0.99269474	with p nine
-1.0004734	at v nine
-0.99269474	by v nine
-1.0139499	in v nine
-1.005932	with v nine
-1.3830447	blue at s
-1.3680787	green at s
-1.3754699	red at s
-1.4484595	white at s
-1.3719585	blue by s
-1.3754699	green by s
-1.4411218	red by s
-1.3832548	white by s
-1.4484595	blue in s
-1.4205317	green in s
-1.3680787	red in s
-1.401097	white in s
-1.401097	blue with s
-1.4411218	green with s
-1.4205317	red with s
-1.3719585	white with s
-1.0269928	at f one
-1.0192142	by f one
-0.9874305	in f one
-0.97941256	with f one
-1.0192142	at l one
-0.97941256	by l one
-1.0269928	in l one
-0.9874305	with l one
-0.97290313	at s one
-1.0109533	by s one
-0.995159	in s one
-1.0368657	with s one
-1.0109533	at z one
-1.0368657	by z one
-0.97290313	in z one
-0.995159	with z one
-0.995159	at m one
-0.97290313	by m one
-1.0368657	in m one
-1.0109533	with m one
-0.995159	at e one
-0.97290313	by e one
-1.0368657	in e one
-1.0109533	with e one
-0.97806174	at r one
-0.9874305	by r one
-1.0192142	in r one
-1.0269928	with r one
-1.0368657	at g one
-0.995159	by g one
-1.0109533	in g one
-0.97290313	with g one
-1.0192142	at t one
-0.97941256	by t one
-1.0269928	in t one
-0.9874305	with t one
-1.0109533	at a one
-1.0368657	by a one
-0.97290313	in a one
-0.995159	with a one
-0.9874305	at h one
-1.0269928	by h one
-0.97941256	in h one
-1.0192142	with h one
-1.0269928	at n one
-1.0192142	by n one
-0.9874305	in n one
-0.97941256	with n one
-0.995159	at u one
-0.97290313	by u one
-1.0368657	in u one
-1.0109533	with u one
-0.97941256	at b one
-0.9874305	by b one
-1.0192142	in b one
-1.0269928	with b one
-1.0368657	at o one
-0.995159	by o one
-1.0109533	in o one
-0.97290313	with o one
-1.0109533	at i one
-1.0368657	by i one
-0.97290313	in i one
-0.995159	with i one
-1.0192142	at d one
-0.97941256	by d one
-1.0269928	in d one
-0.9874305	with d one
-0.97290313	at k one
-1.0109533	by k one
-0.995159	in k one
-1.0368657	with k one
-1.0109533	at q one
-1.0368657	by q one
-0.97290313	in q one
-0.995159	with q one
-1.0368657	at x one
-0.995159	by x one
-1.0109533	in x one
-0.97290313	with x one
-0.9874305	at y one
-1.0269928	by y one
-0.97941256	in y one
-1.0192142	with y one
-0.97941256	at j one
-0.9874305	by j one
-1.0192142	in j one
-1.0269928	with j one
-0.97290313	at c one
-1.0109533	by c one
-0.995159	in c one
-1.0368657	with c one
-0.9874305	at p one
-1.0269928	by p one
-0.97941256	in p one
-1.0192142	with p one
-1.0269928	at v one
-1.0192142	by v one
-0.9874305	in v one
-0.97941256	with v one
-1.0269928	at f zero
-1.0474588	by f zero
-0.96243775	in f zero
-0.97941256	with f zero
-1.0474588	at l zero
-0.97941256	by l zero
-1.0269928	in l zero
-0.96243775	with l zero
-0.99789596	at s zero
-1.0109533	by s zero
-0.995159	in s zero
-1.0086211	with s zero
-1.0109533	at z zero
-1.0086211	by z zero
-0.99789596	in z zero
-0.995159	with z zero
-0.995159	at m zero
-0.99789596	by m zero
-1.0086211	in m zero
-1.0109533	with m zero
-0.995159	at e zero
-0.99789596	by e zero
-1.0086211	in e zero
-1.0109533	with e zero
-0.97806174	at r zero
-0.96243775	by r zero
-1.0474588	in r zero
-1.0269928	with r zero
-1.0086211	at g zero
-0.995159	by g zero
-1.0109533	in g zero
-0.99789596	with g zero
-1.0474588	at t zero
-0.97941256	by t zero
-1.0269928	in t zero
-0.96243775	with t zero
-1.0109533	at a zero
-1.0086211	by a zero
-0.99789596	in a zero
-0.995159	with a zero
-0.96243775	at h zero
-1.0269928	by h zero
-0.97941256	in h zero
-1.0474588	with h zero
-1.0269928	at n zero
-1.0474588	by n zero
-0.96243775	in n zero
-0.97941256	with n zero
-0.995159	at u zero
-0.99789596	by u zero
-1.0086211	in u zero
-1.0109533	with u zero
-0.97941256	at b zero
-0.96243775	by b zero
-1.0474588	in b zero
-1.0269928	with b zero
-1.0086211	at o zero
-0.995159	by o zero
-1.0109533	in o zero
-0.99789596	with o zero
-1.0109533	at i zero
-1.0086211	by i zero
-0.99789596	in i zero
-0.995159	with i zero
-1.0474588	at d zero
-0.97941256	by d zero
-1.0269928	in d zero
-0.96243775	with d zero
-0.99789596	at k zero
-1.0109533	by k zero
-0.995159	in k zero
-1.0086211	with k zero
-1.0109533	at q zero
-1.0086211	by q zero
-0.99789596	in q zero
-0.995159	with q zero
-1.0086211	at x zero
-0.995159	by x zero
-1.0109533	in x zero
-0.99789596	with x zero
-0.96243775	at y zero
-1.0269928	by y zero
-0.97941256	in y zero
-1.0474588	with y zero
-0.97941256	at j zero
-0.96243775	by j zero
-1.0474588	in j zero
-1.0269928	with j zero
-0.99789596	at c zero
-1.0109533	by c zero
-0.995159	in c zero
-1.0086211	with c zero
-0.96243775	at p zero
-1.0269928	by p zero
-0.97941256	in p zero
-1.0474588	with p zero
-1.0269928	at v zero
-1.0474588	by v zero
-0.96243775	in v zero
-0.97941256	with v zero
-1.3730103	blue at z
-1.3779986	green at z
-1.4402772	red at z
-1.3828346	white at z
-1.4027852	blue by z
-1.4402772	green by z
-1.4184277	red by z
-1.3732204	white by z
-1.3828346	blue in z
-1.3684988	green in z
-1.3779986	red in z
-1.4459298	white in z
-1.4459298	blue with z
-1.4184277	green with z
-1.3684988	red with z
-1.4027852	white with z
-0.6004356	bin blue by
-0.6018888	lay blue by
-0.6046763	place blue by
-0.60338557	set blue by
-0.6046763	bin green by
-0.60397947	lay green by
-0.60250616	place green by
-0.60531247	set green by
-0.61062044	bin red by
-0.60250616	lay red by
-0.5989368	place red by
-0.60102504	set red by
-0.601668	bin white by
-0.6018888	lay white by
-0.5981662	place white by
-0.603818	set white by
-1.4486697	blue at m
-1.4201118	green at m
-1.36555	red at m
-1.4036269	white at m
-1.3819929	blue by m
-1.36555	green by m
-1.3763144	red by m
-1.4488798	white by m
-1.4036269	blue in m
-1.4432259	green in m
-1.4201118	red in m
-1.3702703	white in m
-1.3702703	blue with m
-1.3763144	green with m
-1.4432259	red with m
-1.3819929	white with m
-0.5979585	bin blue in
-0.60436594	lay blue in
-0.60123944	place blue in
-0.60338557	set blue in
-0.6020961	bin green in
-0.59566677	lay green in
-0.60250616	place green in
-0.6044524	set green in
-0.5912576	bin red in
-0.60250616	lay red in
-0.61084867	place red in
-0.6018817	set red in
-0.5999597	bin white in
-0.6018888	lay white in
-0.6132457	place white in
-0.60209614	set white in
-1.4486697	blue at e
-1.4201118	green at e
-1.36555	red at e
-1.4036269	white at e
-1.3819929	blue by e
-1.36555	green by e
-1.3763144	red by e
-1.4488798	white by e
-1.4036269	blue in e
-1.4432259	green in e
-1.4201118	red in e
-1.3702703	white in e
-1.3702703	blue with e
-1.3763144	green with e
-1.4432259	red with e
-1.3819929	white with e
-1.4486697	blue at r
-1.4486697	green at r
-1.380516	red at r
-1.3777884	white at r
-1.41906	blue by r
-1.380516	green by r
-1.3713262	red by r
-1.443016	white by r
-1.3777884	blue in r
-1.404257	green in r
-1.4486697	red in r
-1.3653387	white in r
-1.3653387	blue with r
-1.3713262	green with r
-1.404257	red with r
-1.41906	white with r
-0.613038	bin blue with
-0.6018888	lay blue with
-0.5995312	place blue with
-0.60252553	set blue with
-0.60123944	bin green with
-0.6150296	lay green with
-0.60250616	place green with
-0.59426236	set green with
-0.60890204	bin red with
-0.60250616	lay red with
-0.5906241	place red with
-0.60274005	set red with
-0.60424304	bin white with
-0.60436594	lay white with
-0.5981662	place white with
-0.603818	set white with
-1.4038371	blue at g
-1.4428059	green at g
-1.4175832	red at g
-1.3728001	white at g
-1.4476179	blue by g
-1.4175832	green by g
-1.3663946	red by g
-1.4040471	white by g
-1.3728001	blue in g
-1.3784186	green in g
-1.4428059	red in g
-1.3803047	white in g
-1.3803047	blue with g
-1.3663946	green with g
-1.3784186	red with g
-1.4476179	white with g
-1.3779986	blue at t
-1.4038371	green at t
-1.446141	red at t
-1.3678687	white at t
-1.4417541	blue by t
-1.446141	green by t
-1.3813605	red by t
-1.3782086	white by t
-1.3678687	blue in t
-1.3734304	green in t
-1.4038371	red in t
-1.4173717	white in t
-1.4173717	blue with t
-1.3813605	green with t
-1.3734304	red with t
-1.4417541	white with t
-0.6074353	<s> bin green
-0.6070409	<s> lay green
-0.59369487	<s> place green
-0.6007165	<s> set green
-1.3730103	blue at a
-1.3779986	green at a
-1.4402772	red at a
-1.3828346	white at a
-1.4027852	blue by a
-1.4402772	green by a
-1.4184277	red by a
-1.3732204	white by a
-1.3828346	blue in a
-1.3684988	green in a
-1.3779986	red in a
-1.4459298	white in a
-1.4459298	blue with a
-1.4184277	green with a
-1.3684988	red with a
-1.4027852	white with a
-1.4201118	blue at h
-1.3830447	green at h
-1.3704816	red at h
-1.4425957	white at h
-1.3670269	blue by h
-1.3704816	green by h
-1.4021529	red by h
-1.420322	white by h
-1.4425957	blue in h
-1.4490898	green in h
-1.3830447	red in h
-1.3752586	white in h
-1.3752586	blue with h
-1.4021529	green with h
-1.4490898	red with h
-1.3670269	white with h
-1.3680787	blue at n
-1.3730103	green at n
-1.4013084	red at n
-1.4199016	white at n
-1.3769467	blue by n
-1.4013084	green by n
-1.4469856	red by n
-1.3682888	white by n
-1.4199016	blue in n
-1.3834647	green in n
-1.3730103	red in n
-1.4400659	white in n
-1.4400659	blue with n
-1.4469856	green with n
-1.3834647	red with n
-1.3769467	white with n
-1.4486697	blue at u
-1.4201118	green at u
-1.36555	red at u
-1.4036269	white at u
-1.3819929	blue by u
-1.36555	green by u
-1.3763144	red by u
-1.4488798	white by u
-1.4036269	blue in u
-1.4432259	green in u
-1.4201118	red in u
-1.3702703	white in u
-1.3702703	blue with u
-1.3763144	green with u
-1.4432259	red with u
-1.3819929	white with u
-1.4428059	blue at b
-1.4486697	green at b
-1.380516	red at b
-1.3777884	white at b
-1.41906	blue by b
-1.380516	green by b
-1.3713262	red by b
-1.443016	white by b
-1.3777884	blue in b
-1.404257	green in b
-1.4486697	red in b
-1.3653387	white in b
-1.3653387	blue with b
-1.3713262	green with b
-1.404257	red with b
-1.41906	white with b
-1.4038371	blue at o
-1.4428059	green at o
-1.4175832	red at o
-1.3728001	white at o
-1.4476179	blue by o
-1.4175832	green by o
-1.3663946	red by o
-1.4040471	white by o
-1.3728001	blue in o
-1.3784186	green in o
-1.4428059	red in o
-1.3803047	white in o
-1.3803047	blue with o
-1.3663946	green with o
-1.3784186	red with o
-1.4476179	white with o
-1.3730103	blue at i
-1.3779986	green at i
-1.4402772	red at i
-1.3828346	white at i
-1.4027852	blue by i
-1.4402772	green by i
-1.4184277	red by i
-1.3732204	white by i
-1.3828346	blue in i
-1.3684988	green in i
-1.3779986	red in i
-1.4459298	white in i
-1.4459298	blue with i
-1.4184277	green with i
-1.3684988	red with i
-1.4027852	white with i
-0.600627	<s> bin red
-0.6001991	<s> lay red
-0.60558105	<s> place red
-0.60242945	<s> set red
-0.6070066	<s> bin white
-0.6008167	<s> lay white
-0.5980363	<s> place white
-0.60307354	<s> set white
-1.3779986	blue at d
-1.4038371	green at d
-1.446141	red at d
-1.3678687	white at d
-1.4417541	blue by d
-1.446141	green by d
-1.3813605	red by d
-1.3782086	white by d
-1.3678687	blue in d
-1.3734304	green in d
-1.4038371	red in d
-1.4173717	white in d
-1.4173717	blue with d
-1.3813605	green with d
-1.3734304	red with d
-1.4417541	white with d
-1.3830447	blue at k
-1.3680787	green at k
-1.3754699	red at k
-1.4484595	white at k
-1.3719585	blue by k
-1.3754699	green by k
-1.4411218	red by k
-1.3832548	white by k
-1.4484595	blue in k
-1.4205317	green in k
-1.3680787	red in k
-1.401097	white in k
-1.401097	blue with k
-1.4411218	green with k
-1.4205317	red with k
-1.3719585	white with k
-1.3730103	blue at q
-1.3779986	green at q
-1.4402772	red at q
-1.3828346	white at q
-1.4027852	blue by q
-1.4402772	green by q
-1.4184277	red by q
-1.3732204	white by q
-1.3828346	blue in q
-1.3684988	green in q
-1.3779986	red in q
-1.4459298	white in q
-1.4459298	blue with q
-1.4184277	green with q
-1.3684988	red with q
-1.4027852	white with q
-1.4038371	blue at x
-1.4428059	green at x
-1.4175832	red at x
-1.3728001	white at x
-1.4476179	blue by x
-1.4175832	green by x
-1.3663946	red by x
-1.4040471	white by x
-1.3728001	blue in x
-1.3784186	green in x
-1.4428059	red in x
-1.3803047	white in x
-1.3803047	blue with x
-1.3663946	green with x
-1.3784186	red with x
-1.4476179	white with x
-1.4201118	blue at y
-1.3830447	green at y
-1.3704816	red at y
-1.4425957	white at y
-1.3670269	blue by y
-1.3704816	green by y
-1.4021529	red by y
-1.420322	white by y
-1.4425957	blue in y
-1.4490898	green in y
-1.3830447	red in y
-1.3752586	white in y
-1.3752586	blue with y
-1.4021529	green with y
-1.4490898	red with y
-1.3670269	white with y
-1.4428059	blue at j
-1.4486697	green at j
-1.380516	red at j
-1.3777884	white at j
-1.41906	blue by j
-1.380516	green by j
-1.3713262	red by j
-1.443016	white by j
-1.3777884	blue in j
-1.404257	green in j
-1.4486697	red in j
-1.3653387	white in j
-1.3653387	blue with j
-1.3713262	green with j
-1.404257	red with j
-1.41906	white with j
-1.3830447	blue at c
-1.3680787	green at c
-1.3754699	red at c
-1.4484595	white at c
-1.3719585	blue by c
-1.3754699	green by c
-1.4411218	red by c
-1.3832548	white by c
-1.4484595	blue in c
-1.4205317	green in c
-1.3680787	red in c
-1.401097	white in c
-1.401097	blue with c
-1.4411218	green with c
-1.4205317	red with c
-1.3719585	white with c
-1.4201118	blue at p
-1.3830447	green at p
-1.3704816	red at p
-1.4425957	white at p
-1.3670269	blue by p
-1.3704816	green by p
-1.4021529	red by p
-1.420322	white by p
-1.4425957	blue in p
-1.4490898	green in p
-1.3830447	red in p
-1.3752586	white in p
-1.3752586	blue with p
-1.4021529	green with p
-1.4490898	red with p
-1.3670269	white with p
-1.3680787	blue at v
-1.3730103	green at v
-1.4013084	red at v
-1.4199016	white at v
-1.3769467	blue by v
-1.4013084	green by v
-1.4469856	red by v
-1.3682888	white by v
-1.4199016	blue in v
-1.3834647	green in v
-1.3730103	red in v
-1.4400659	white in v
-1.4400659	blue with v
-1.4469856	green with v
-1.3834647	red with v
-1.3769467	white with v

\end\
